[
    {
      "rank": 1,
      "layer": "backbone.layer4.0.conv2",
      "channel": 146,
      "score": 18.391662746845526,
      "l2_norm": 0.4805547893047333,
      "kernel_raw": [
        [
          -0.005316440481692553,
          -0.005514847114682198,
          -0.0057182577438652515
        ],
        [
          3.9983136957744136e-05,
          0.0026848542038351297,
          -0.00040754477959126234
        ],
        [
          0.0002227991062682122,
          0.001041473587974906,
          -0.0014328011311590672
        ]
      ],
      "kernel_conv": [
        [
          -0.0037163535598665476,
          -0.003914760425686836,
          -0.004118170589208603
        ],
        [
          0.0016400701133534312,
          0.004284941125661135,
          0.0011925421422347426
        ],
        [
          0.0018228860571980476,
          0.002641560509800911,
          0.00016728579066693783
        ]
      ],
      "stats": {
        "raw_min": -0.0057182577438652515,
        "raw_max": 0.0026848542038351297,
        "raw_mean": -0.001600086921826005,
        "raw_l2": 0.010096530430018902,
        "conv_min": -0.004118170589208603,
        "conv_max": 0.004284941125661135,
        "conv_mean": 1.8109050370362922e-10,
        "conv_l2": 0.008882422000169754
      }
    },
    {
      "rank": 2,
      "layer": "backbone.layer3.21.conv2",
      "channel": 95,
      "score": 13.777809295922212,
      "l2_norm": 0.5752043128013611,
      "kernel_raw": [
        [
          0.0009751573670655489,
          -0.0033341378439217806,
          0.0007903910591267049
        ],
        [
          0.0010693059302866459,
          -0.010863030329346657,
          0.0005048501188866794
        ],
        [
          0.0016697164392098784,
          -0.0032024362590163946,
          0.001433839206583798
        ]
      ],
      "kernel_conv": [
        [
          0.0021925289183855057,
          -0.002116766292601824,
          0.0020077626686543226
        ],
        [
          0.0022866774816066027,
          -0.009645658545196056,
          0.001722221728414297
        ],
        [
          0.0028870878741145134,
          -0.001985064707696438,
          0.0026512108743190765
        ]
      ],
      "stats": {
        "raw_min": -0.010863030329346657,
        "raw_max": 0.0016697164392098784,
        "raw_mean": -0.0012173715513199568,
        "raw_l2": 0.012132407166063786,
        "conv_min": -0.009645658545196056,
        "conv_max": 0.0028870878741145134,
        "conv_mean": -5.1740143419687357e-11,
        "conv_l2": 0.011569674126803875
      }
    },
    {
      "rank": 3,
      "layer": "backbone.layer4.0.conv2",
      "channel": 498,
      "score": 13.097532209417727,
      "l2_norm": 0.5962575078010559,
      "kernel_raw": [
        [
          0.0014330203412100673,
          0.003338742535561323,
          0.0026419609785079956
        ],
        [
          0.0023370604030787945,
          0.00471909623593092,
          0.005380771588534117
        ],
        [
          0.0018436128739267588,
          0.004883508663624525,
          0.0031591460574418306
        ]
      ],
      "kernel_conv": [
        [
          -0.0018710821168497205,
          3.4640077501535416e-05,
          -0.0006621414795517921
        ],
        [
          -0.0009670420549809933,
          0.001414993777871132,
          0.002076669130474329
        ],
        [
          -0.001460489584133029,
          0.0015794062055647373,
          -0.00014495640061795712
        ]
      ],
      "stats": {
        "raw_min": 0.0014330203412100673,
        "raw_max": 0.005380771588534117,
        "raw_mean": 0.0033041024580597878,
        "raw_l2": 0.010681428015232086,
        "conv_min": -0.0018710821168497205,
        "conv_max": 0.002076669130474329,
        "conv_mean": -2.5870072750677764e-10,
        "conv_l2": 0.003979834262281656
      }
    },
    {
      "rank": 4,
      "layer": "backbone.layer3.14.conv2",
      "channel": 161,
      "score": 12.659934348374229,
      "l2_norm": 0.6099923253059387,
      "kernel_raw": [
        [
          -0.0013293387601152062,
          -0.0025130915455520153,
          -0.0022316102404147387
        ],
        [
          0.0005859890952706337,
          -0.00012402200081851333,
          -2.1482546799234115e-05
        ],
        [
          0.00011410673323553056,
          -0.00036645011277869344,
          -0.00045414469786919653
        ]
      ],
      "kernel_conv": [
        [
          -0.0006248894496820867,
          -0.0018086421769112349,
          -0.0015271608717739582
        ],
        [
          0.0012904384639114141,
          0.000580427295062691,
          0.0006829667836427689
        ],
        [
          0.0008185560582205653,
          0.0003379991976544261,
          0.000250304612563923
        ]
      ],
      "stats": {
        "raw_min": -0.0025130915455520153,
        "raw_max": 0.0005859890952706337,
        "raw_mean": -0.0007044493104331195,
        "raw_l2": 0.0037115539889782667,
        "conv_min": -0.0018086421769112349,
        "conv_max": 0.0012904384639114141,
        "conv_mean": -2.2636312962953653e-11,
        "conv_l2": 0.0030511298682540655
      }
    },
    {
      "rank": 5,
      "layer": "backbone.layer3.21.conv2",
      "channel": 245,
      "score": 12.289389189785876,
      "l2_norm": 0.9044892191886902,
      "kernel_raw": [
        [
          0.0011245104251429439,
          0.00041287823114544153,
          0.0010913030710071325
        ],
        [
          -0.0010963230160996318,
          -0.003351096296682954,
          -0.0010114639298990369
        ],
        [
          -0.0010461924830451608,
          -0.0005237223231233656,
          -7.03165860613808e-05
        ]
      ],
      "kernel_conv": [
        [
          0.001621224102564156,
          0.0009095919085666537,
          0.0015880167484283447
        ],
        [
          -0.0005996093386784196,
          -0.0028543826192617416,
          -0.0005147502524778247
        ],
        [
          -0.0005494788056239486,
          -2.7008645702153444e-05,
          0.00042639707680791616
        ]
      ],
      "stats": {
        "raw_min": -0.003351096296682954,
        "raw_max": 0.0011245104251429439,
        "raw_mean": -0.0004967136774212122,
        "raw_l2": 0.0041778599843382835,
        "conv_min": -0.0028543826192617416,
        "conv_max": 0.001621224102564156,
        "conv_mean": 3.8805108432127255e-11,
        "conv_l2": 0.0039030746556818485
      }
    },
    {
      "rank": 6,
      "layer": "backbone.layer3.15.conv2",
      "channel": 76,
      "score": 11.201405013431131,
      "l2_norm": 0.5230560898780823,
      "kernel_raw": [
        [
          -0.006958561483770609,
          -0.006802143529057503,
          -0.007107018493115902
        ],
        [
          0.0012913525570183992,
          0.0012344780843704939,
          0.0016146611887961626
        ],
        [
          0.002203631680458784,
          0.001874733017757535,
          0.0020726213697344065
        ]
      ],
      "kernel_conv": [
        [
          -0.005783422850072384,
          -0.005627005361020565,
          -0.005931880325078964
        ],
        [
          0.0024664909578859806,
          0.0024096164852380753,
          0.002789799589663744
        ],
        [
          0.0033787700813263655,
          0.0030498714186251163,
          0.003247759770601988
        ]
      ],
      "stats": {
        "raw_min": -0.007107018493115902,
        "raw_max": 0.002203631680458784,
        "raw_mean": -0.0011751384008675814,
        "raw_l2": 0.012793180532753468,
        "conv_min": -0.005931880325078964,
        "conv_max": 0.0033787700813263655,
        "conv_mean": -5.1740143419687357e-11,
        "conv_l2": 0.012297842651605606
      }
    },
    {
      "rank": 7,
      "layer": "backbone.layer3.15.conv2",
      "channel": 28,
      "score": 10.854861508421038,
      "l2_norm": 0.3983392119407654,
      "kernel_raw": [
        [
          0.0003069582162424922,
          0.0010042284848168492,
          0.0003717635991051793
        ],
        [
          0.0012118336744606495,
          0.0027151922695338726,
          0.00125986454077065
        ],
        [
          0.0006756623042747378,
          0.0017838316271081567,
          0.0015727262943983078
        ]
      ],
      "kernel_conv": [
        [
          -0.0009043818572536111,
          -0.00020711158867925406,
          -0.000839576474390924
        ],
        [
          4.936009645462036e-07,
          0.0015038521960377693,
          4.852446727454662e-05
        ],
        [
          -0.0005356777692213655,
          0.0005724915536120534,
          0.0003613862209022045
        ]
      ],
      "stats": {
        "raw_min": 0.0003069582162424922,
        "raw_max": 0.0027151922695338726,
        "raw_mean": 0.0012113400734961033,
        "raw_l2": 0.0042167543433606625,
        "conv_min": -0.0009043818572536111,
        "conv_max": 0.0015038521960377693,
        "conv_mean": 3.8805108432127255e-11,
        "conv_l2": 0.0021389047615230083
      }
    },
    {
      "rank": 8,
      "layer": "backbone.layer4.1.conv2",
      "channel": 149,
      "score": 10.784558576911577,
      "l2_norm": 0.6288064122200012,
      "kernel_raw": [
        [
          -0.0039686113595962524,
          -0.00022327550686895847,
          -0.00469817453995347
        ],
        [
          0.001528921420685947,
          0.00107244320679456,
          0.001203188207000494
        ],
        [
          -0.005708556156605482,
          -0.0005607346538454294,
          -0.005933088716119528
        ]
      ],
      "kernel_conv": [
        [
          -0.0020477348007261753,
          0.0016976009355857968,
          -0.002777297981083393
        ],
        [
          0.0034497978631407022,
          0.0029933196492493153,
          0.003124064765870571
        ],
        [
          -0.003787679597735405,
          0.0013601417886093259,
          -0.004012212157249451
        ]
      ],
      "stats": {
        "raw_min": -0.005933088716119528,
        "raw_max": 0.001528921420685947,
        "raw_mean": -0.0019208764424547553,
        "raw_l2": 0.010531455278396606,
        "conv_min": -0.004012212157249451,
        "conv_max": 0.0034497978631407022,
        "conv_mean": 5.1740143419687357e-11,
        "conv_l2": 0.00881496723741293
      }
    },
    {
      "rank": 9,
      "layer": "backbone.layer3.5.conv2",
      "channel": 5,
      "score": 10.682979163974903,
      "l2_norm": 0.4386790692806244,
      "kernel_raw": [
        [
          -0.0008379128994420171,
          -1.5026357687020209e-05,
          -0.0013957602204754949
        ],
        [
          0.0012249506544321775,
          0.008367098867893219,
          0.0001206161905429326
        ],
        [
          -0.0009825541637837887,
          -0.00023149247863329947,
          -0.0014451725874096155
        ]
      ],
      "kernel_conv": [
        [
          -0.0013717736583203077,
          -0.0005488871829584241,
          -0.0019296209793537855
        ],
        [
          0.000691089837346226,
          0.007833237759768963,
          -0.00041324461926706135
        ],
        [
          -0.0015164150390774012,
          -0.0007653533248230815,
          -0.001979033462703228
        ]
      ],
      "stats": {
        "raw_min": -0.0014451725874096155,
        "raw_max": 0.008367098867893219,
        "raw_mean": 0.0005338608170859516,
        "raw_l2": 0.008790982887148857,
        "conv_min": -0.001979033462703228,
        "conv_max": 0.007833237759768963,
        "conv_mean": -5.1740143419687357e-11,
        "conv_l2": 0.008643860928714275
      }
    },
    {
      "rank": 10,
      "layer": "backbone.layer3.6.conv2",
      "channel": 158,
      "score": 10.523938759352072,
      "l2_norm": 0.4640781581401825,
      "kernel_raw": [
        [
          0.0009122634073719382,
          -0.002653531963005662,
          0.0007870355620980263
        ],
        [
          -0.0008344242232851684,
          -0.008575137704610825,
          -0.001168714021332562
        ],
        [
          0.0005223930347710848,
          -0.0022514720913022757,
          0.0007315867696888745
        ]
      ],
      "kernel_conv": [
        [
          0.002304485999047756,
          -0.0012613094877451658,
          0.0021792580373585224
        ],
        [
          0.0005577982519753277,
          -0.0071829152293503284,
          0.00022350845392793417
        ],
        [
          0.001914615510031581,
          -0.0008592496160417795,
          0.0021238091867417097
        ]
      ],
      "stats": {
        "raw_min": -0.008575137704610825,
        "raw_max": 0.0009122634073719382,
        "raw_mean": -0.0013922224752604961,
        "raw_l2": 0.009485002607107162,
        "conv_min": -0.0071829152293503284,
        "conv_max": 0.002304485999047756,
        "conv_mean": 1.2935036375338882e-10,
        "conv_l2": 0.008515909314155579
      }
    },
    {
      "rank": 11,
      "layer": "backbone.layer3.2.conv2",
      "channel": 178,
      "score": 10.232368959141507,
      "l2_norm": 0.4641251564025879,
      "kernel_raw": [
        [
          0.000257378036621958,
          0.000981743447482586,
          -0.0008901451947167516
        ],
        [
          0.0010459093609824777,
          0.011734296567738056,
          -0.0007660383707843721
        ],
        [
          0.001148564857430756,
          0.0017508860910311341,
          -0.001030131708830595
        ]
      ],
      "kernel_conv": [
        [
          -0.0013240068219602108,
          -0.0005996414693072438,
          -0.0024715301115065813
        ],
        [
          -0.0005354755558073521,
          0.010152911767363548,
          -0.002347423229366541
        ],
        [
          -0.00043282005935907364,
          0.0001695011742413044,
          -0.002611516509205103
        ]
      ],
      "stats": {
        "raw_min": -0.001030131708830595,
        "raw_max": 0.011734296567738056,
        "raw_mean": 0.0015813849167898297,
        "raw_l2": 0.01210961863398552,
        "conv_min": -0.002611516509205103,
        "conv_max": 0.010152911767363548,
        "conv_mean": -1.0348028683937471e-10,
        "conv_l2": 0.01114162802696228
      }
    },
    {
      "rank": 12,
      "layer": "backbone.layer1.1.conv2",
      "channel": 37,
      "score": 9.916093788226451,
      "l2_norm": 1.0256588459014893,
      "kernel_raw": [
        [
          -0.004326338414102793,
          0.0003198851190973073,
          -0.004047412890940905
        ],
        [
          0.00046540898620150983,
          0.0081414096057415,
          -7.33242486603558e-05
        ],
        [
          -0.00442822091281414,
          0.003825646359473467,
          -0.0032185944728553295
        ]
      ],
      "kernel_conv": [
        [
          -0.003955055959522724,
          0.0006911674281582236,
          -0.0036761306691914797
        ],
        [
          0.0008366912952624261,
          0.008512691594660282,
          0.0002979580604005605
        ],
        [
          -0.004056938458234072,
          0.0041969288140535355,
          -0.0028473122511059046
        ]
      ],
      "stats": {
        "raw_min": -0.00442822091281414,
        "raw_max": 0.0081414096057415,
        "raw_mean": -0.0003712823090609163,
        "raw_l2": 0.012095853686332703,
        "conv_min": -0.004056938458234072,
        "conv_max": 0.008512691594660282,
        "conv_mean": -2.5870071709843678e-11,
        "conv_l2": 0.012044460512697697
      }
    },
    {
      "rank": 13,
      "layer": "backbone.layer3.13.conv2",
      "channel": 60,
      "score": 9.758440427100842,
      "l2_norm": 0.541598916053772,
      "kernel_raw": [
        [
          0.0025043815840035677,
          0.0019660519901663065,
          0.0021723059471696615
        ],
        [
          0.0017704347847029567,
          0.004433371592313051,
          0.0010521751828491688
        ],
        [
          0.001281916513107717,
          0.0012563986238092184,
          0.000355181226041168
        ]
      ],
      "kernel_conv": [
        [
          0.0006385798333212733,
          0.00010025023948401213,
          0.00030650419648736715
        ],
        [
          -9.536696597933769e-05,
          0.002567569725215435,
          -0.0008136265678331256
        ],
        [
          -0.0005838852375745773,
          -0.000609403126873076,
          -0.0015106205828487873
        ]
      ],
      "stats": {
        "raw_min": 0.000355181226041168,
        "raw_max": 0.004433371592313051,
        "raw_mean": 0.0018658017506822944,
        "raw_l2": 0.006488489918410778,
        "conv_min": -0.0015106205828487873,
        "conv_max": 0.002567569725215435,
        "conv_mean": 1.6815546177717522e-10,
        "conv_l2": 0.003281698562204838
      }
    },
    {
      "rank": 14,
      "layer": "backbone.layer3.6.conv2",
      "channel": 136,
      "score": 9.372579552213741,
      "l2_norm": 0.3972981572151184,
      "kernel_raw": [
        [
          0.0004135611525271088,
          0.0017821810906752944,
          0.0015666134422644973
        ],
        [
          0.0016413324046880007,
          0.007188584189862013,
          0.003116385545581579
        ],
        [
          0.00039191037649288774,
          0.0012194409500807524,
          0.000966812891419977
        ]
      ],
      "kernel_conv": [
        [
          -0.001618308131583035,
          -0.0002496881643310189,
          -0.00046525581274181604
        ],
        [
          -0.00039053685031831264,
          0.0051567149348556995,
          0.0010845162905752659
        ],
        [
          -0.0016399589367210865,
          -0.000812428304925561,
          -0.0010650563053786755
        ]
      ],
      "stats": {
        "raw_min": 0.00039191037649288774,
        "raw_max": 0.007188584189862013,
        "raw_mean": 0.0020318692550063133,
        "raw_l2": 0.008512251079082489,
        "conv_min": -0.0016399589367210865,
        "conv_max": 0.0051567149348556995,
        "conv_mean": -1.2935036375338882e-10,
        "conv_l2": 0.005941546987742186
      }
    },
    {
      "rank": 15,
      "layer": "backbone.layer3.11.conv2",
      "channel": 238,
      "score": 9.29420146713386,
      "l2_norm": 0.4668005108833313,
      "kernel_raw": [
        [
          -0.0019200313836336136,
          -0.0018843417055904865,
          -0.0023477121721953154
        ],
        [
          -0.001230796566233039,
          0.00015028360940050334,
          0.0009981803596019745
        ],
        [
          -0.002991249319165945,
          -0.0010804524645209312,
          -0.0006494540139101446
        ]
      ],
      "kernel_conv": [
        [
          -0.0007027453975751996,
          -0.0006670557195320725,
          -0.0011304261861369014
        ],
        [
          -1.351058017462492e-05,
          0.0013675695518031716,
          0.0022154664620757103
        ],
        [
          -0.001773963333107531,
          0.00013683352153748274,
          0.0005678319721482694
        ]
      ],
      "stats": {
        "raw_min": -0.002991249319165945,
        "raw_max": 0.0009981803596019745,
        "raw_mean": -0.001217285986058414,
        "raw_l2": 0.005081295967102051,
        "conv_min": -0.001773963333107531,
        "conv_max": 0.0022154664620757103,
        "conv_mean": 1.9402554216063628e-11,
        "conv_l2": 0.0035331996623426676
      }
    },
    {
      "rank": 16,
      "layer": "backbone.layer3.12.conv2",
      "channel": 228,
      "score": 9.277795452769894,
      "l2_norm": 0.49688857793807983,
      "kernel_raw": [
        [
          0.0006604447844438255,
          -0.0009279841324314475,
          0.0006264636758714914
        ],
        [
          -0.002486333018168807,
          -0.010477001778781414,
          -0.0025802289601415396
        ],
        [
          0.00010009172547142953,
          -0.001882312004454434,
          0.0005714658182114363
        ]
      ],
      "kernel_conv": [
        [
          0.0024821553379297256,
          0.0008937264792621136,
          0.0024481741711497307
        ],
        [
          -0.000664622406475246,
          -0.008655291050672531,
          -0.0007585183484479785
        ],
        [
          0.001921802293509245,
          -6.060139276087284e-05,
          0.0023931763134896755
        ]
      ],
      "stats": {
        "raw_min": -0.010477001778781414,
        "raw_max": 0.0006604447844438255,
        "raw_mean": -0.001821710611693561,
        "raw_l2": 0.011321505531668663,
        "conv_min": -0.008655291050672531,
        "conv_max": 0.0024821553379297256,
        "conv_mean": 1.0348028683937471e-10,
        "conv_l2": 0.009915080852806568
      }
    },
    {
      "rank": 17,
      "layer": "backbone.layer4.2.conv2",
      "channel": 22,
      "score": 9.229339786089671,
      "l2_norm": 0.42946749925613403,
      "kernel_raw": [
        [
          -0.00257573532871902,
          -0.001897785346955061,
          -0.00245839124545455
        ],
        [
          -0.0008659569430164993,
          0.0030530975200235844,
          -0.001040840637870133
        ],
        [
          -0.002181076677516103,
          -0.0009604822844266891,
          -0.0017864590045064688
        ]
      ],
      "kernel_conv": [
        [
          -0.0013853319687768817,
          -0.0007073819870129228,
          -0.0012679878855124116
        ],
        [
          0.0003244464169256389,
          0.004243500996381044,
          0.00014956272207200527
        ],
        [
          -0.0009906733175739646,
          0.00022992107551544905,
          -0.0005960556445643306
        ]
      ],
      "stats": {
        "raw_min": -0.00257573532871902,
        "raw_max": 0.0030530975200235844,
        "raw_mean": -0.0011904033599421382,
        "raw_l2": 0.006025394424796104,
        "conv_min": -0.0013853319687768817,
        "conv_max": 0.004243500996381044,
        "conv_mean": 1.2935035854921839e-11,
        "conv_l2": 0.004853024147450924
      }
    },
    {
      "rank": 18,
      "layer": "backbone.layer3.9.conv2",
      "channel": 255,
      "score": 9.200622693811786,
      "l2_norm": 0.4804741442203522,
      "kernel_raw": [
        [
          -0.002293242607265711,
          -0.0003537166921887547,
          -0.0028908730018883944
        ],
        [
          -0.0010118142236024141,
          0.012418869882822037,
          0.0005853433394804597
        ],
        [
          -0.0026297455187886953,
          -0.00014636559353675693,
          -0.0024384453427046537
        ]
      ],
      "kernel_conv": [
        [
          -0.00243102153763175,
          -0.0004914957098662853,
          -0.0030286519322544336
        ],
        [
          -0.0011495932703837752,
          0.012281090952455997,
          0.0004475643509067595
        ],
        [
          -0.0027675244491547346,
          -0.00028414459666237235,
          -0.002576224273070693
        ]
      ],
      "stats": {
        "raw_min": -0.0028908730018883944,
        "raw_max": 0.012418869882822037,
        "raw_mean": 0.00013777900312561542,
        "raw_l2": 0.013498850166797638,
        "conv_min": -0.0030286519322544336,
        "conv_max": 0.012281090952455997,
        "conv_mean": -2.5870071709843678e-11,
        "conv_l2": 0.013492519967257977
      }
    },
    {
      "rank": 19,
      "layer": "backbone.layer3.21.conv2",
      "channel": 22,
      "score": 9.090685501636393,
      "l2_norm": 0.4599932134151459,
      "kernel_raw": [
        [
          -0.0008613598183728755,
          -0.0007215905352495611,
          -0.0008708906825631857
        ],
        [
          -0.0017276154831051826,
          -0.0010648994939401746,
          -0.0014178331475704908
        ],
        [
          -0.0009899823926389217,
          -0.0011125026503577828,
          -0.0005626959609799087
        ]
      ],
      "kernel_conv": [
        [
          0.00017523689894005656,
          0.00031500618206337094,
          0.00016570603474974632
        ],
        [
          -0.0006910187657922506,
          -2.8302776627242565e-05,
          -0.0003812364302575588
        ],
        [
          4.661432467401028e-05,
          -7.590593304485083e-05,
          0.0004739007563330233
        ]
      ],
      "stats": {
        "raw_min": -0.0017276154831051826,
        "raw_max": -0.0005626959609799087,
        "raw_mean": -0.001036596717312932,
        "raw_l2": 0.0032686933409422636,
        "conv_min": -0.0006910187657922506,
        "conv_max": 0.0004739007563330233,
        "conv_mean": 3.2337590938347205e-11,
        "conv_l2": 0.0010067577240988612
      }
    },
    {
      "rank": 20,
      "layer": "backbone.layer3.17.conv2",
      "channel": 12,
      "score": 9.030234653893727,
      "l2_norm": 0.364433228969574,
      "kernel_raw": [
        [
          -0.0031155203469097614,
          0.003715129103511572,
          -0.0041881524957716465
        ],
        [
          -0.00300494022667408,
          0.0037478783633559942,
          -0.004375804681330919
        ],
        [
          -0.005055312067270279,
          0.0015587499365210533,
          -0.005614323075860739
        ]
      ],
      "kernel_conv": [
        [
          -0.0013008207315579057,
          0.0055298288352787495,
          -0.002373452764004469
        ],
        [
          -0.0011902406113222241,
          0.005562577862292528,
          -0.0025611049495637417
        ],
        [
          -0.0032406123355031013,
          0.003373449668288231,
          -0.003799623344093561
        ]
      ],
      "stats": {
        "raw_min": -0.005614323075860739,
        "raw_max": 0.0037478783633559942,
        "raw_mean": -0.0018146996153518558,
        "raw_l2": 0.011949046514928341,
        "conv_min": -0.003799623344093561,
        "conv_max": 0.005562577862292528,
        "conv_mean": 2.0696057367874943e-10,
        "conv_l2": 0.010636799037456512
      }
    },
    {
      "rank": 21,
      "layer": "backbone.layer3.0.conv2",
      "channel": 73,
      "score": 9.006843844297476,
      "l2_norm": 0.6050634384155273,
      "kernel_raw": [
        [
          -0.0008366875117644668,
          -0.0010570531012490392,
          -0.0005615503177978098
        ],
        [
          -0.0010008843382820487,
          -0.0004363608022686094,
          -0.000778620014898479
        ],
        [
          -3.6612185795092955e-05,
          -0.001221301732584834,
          -0.0004063714004587382
        ]
      ],
      "kernel_conv": [
        [
          -0.00013274955563247204,
          -0.00035311514511704445,
          0.00014238763833418489
        ],
        [
          -0.000296946382150054,
          0.0002675771538633853,
          -7.468205876648426e-05
        ],
        [
          0.0006673257448710501,
          -0.0005173637764528394,
          0.0002975665556732565
        ]
      ],
      "stats": {
        "raw_min": -0.001221301732584834,
        "raw_max": -3.6612185795092955e-05,
        "raw_mean": -0.0007039379561319947,
        "raw_l2": 0.0023641556035727262,
        "conv_min": -0.0005173637764528394,
        "conv_max": 0.0006673257448710501,
        "conv_mean": 1.9402554216063628e-11,
        "conv_l2": 0.0010627671144902706
      }
    },
    {
      "rank": 22,
      "layer": "backbone.layer4.1.conv2",
      "channel": 17,
      "score": 8.946987205260267,
      "l2_norm": 0.625652015209198,
      "kernel_raw": [
        [
          -0.0017649759538471699,
          -0.00261696707457304,
          0.0022793831303715706
        ],
        [
          -0.0024266105610877275,
          -0.006671017501503229,
          0.004168488085269928
        ],
        [
          -0.001268228399567306,
          -0.0026477903593331575,
          0.0029321855399757624
        ]
      ],
      "kernel_conv": [
        [
          -0.0008743610815145075,
          -0.0017263521440327168,
          0.003169998060911894
        ],
        [
          -0.0015359956305474043,
          -0.005780402570962906,
          0.005059103015810251
        ],
        [
          -0.0003776135272346437,
          -0.0017571754287928343,
          0.0038228004705160856
        ]
      ],
      "stats": {
        "raw_min": -0.006671017501503229,
        "raw_max": 0.004168488085269928,
        "raw_mean": -0.0008906148723326623,
        "raw_l2": 0.010007165372371674,
        "conv_min": -0.005780402570962906,
        "conv_max": 0.005059103015810251,
        "conv_mean": 1.2935036375338882e-10,
        "conv_l2": 0.009643889963626862
      }
    },
    {
      "rank": 23,
      "layer": "backbone.layer3.19.conv2",
      "channel": 26,
      "score": 8.698312641646586,
      "l2_norm": 0.39779648184776306,
      "kernel_raw": [
        [
          -0.00048103052540682256,
          0.0002916799276135862,
          -0.0005049946485087276
        ],
        [
          1.7772028513718396e-05,
          0.0038016510661691427,
          0.00012563112250063568
        ],
        [
          -0.0008204607875086367,
          -0.000871425261721015,
          -0.0013195954961702228
        ]
      ],
      "kernel_conv": [
        [
          -0.0005076113156974316,
          0.00026509910821914673,
          -0.000531575467903167
        ],
        [
          -8.808783604763448e-06,
          0.0037750701885670424,
          9.905031038215384e-05
        ],
        [
          -0.0008470416069030762,
          -0.0008980060811154544,
          -0.0013461762573570013
        ]
      ],
      "stats": {
        "raw_min": -0.0013195954961702228,
        "raw_max": 0.0038016510661691427,
        "raw_mean": 2.6580812118481845e-05,
        "raw_l2": 0.004267787095159292,
        "conv_min": -0.0013461762573570013,
        "conv_max": 0.0037750701885670424,
        "conv_mean": 0.0,
        "conv_l2": 0.0042670420370996
      }
    },
    {
      "rank": 24,
      "layer": "backbone.layer3.7.conv2",
      "channel": 152,
      "score": 8.578678325231536,
      "l2_norm": 0.5337772369384766,
      "kernel_raw": [
        [
          -8.548505866201594e-05,
          -0.0021349654998630285,
          -0.001201280509121716
        ],
        [
          -0.000994822126813233,
          -0.008736693300306797,
          -0.0019501767819747329
        ],
        [
          0.00028925228980369866,
          -0.001189114642329514,
          0.0006252722232602537
        ]
      ],
      "kernel_conv": [
        [
          0.0016231830231845379,
          -0.0004262974252924323,
          0.0005073875654488802
        ],
        [
          0.0007138459477573633,
          -0.007028025109320879,
          -0.00024150870740413666
        ],
        [
          0.0019979204516857862,
          0.0005195534322410822,
          0.002333940239623189
        ]
      ],
      "stats": {
        "raw_min": -0.008736693300306797,
        "raw_max": 0.0006252722232602537,
        "raw_mean": -0.0017086680745705962,
        "raw_l2": 0.009435027837753296,
        "conv_min": -0.007028025109320879,
        "conv_max": 0.002333940239623189,
        "conv_mean": -7.761021686425451e-11,
        "conv_l2": 0.007921100594103336
      }
    },
    {
      "rank": 25,
      "layer": "backbone.layer3.17.conv2",
      "channel": 59,
      "score": 8.41592412795129,
      "l2_norm": 0.47837257385253906,
      "kernel_raw": [
        [
          -0.0004263747832737863,
          -0.0011947678867727518,
          -0.001576595357619226
        ],
        [
          -0.00038197392132133245,
          -0.0013890445698052645,
          -0.0018989794189110398
        ],
        [
          0.00017944630235433578,
          -0.0007036554743535817,
          -0.002451587002724409
        ]
      ],
      "kernel_conv": [
        [
          0.0006673510069958866,
          -0.00010104209650307894,
          -0.0004828695673495531
        ],
        [
          0.0007117518689483404,
          -0.0002953187795355916,
          -0.000805253628641367
        ],
        [
          0.0012731720926240087,
          0.0003900703159160912,
          -0.0013578612124547362
        ]
      ],
      "stats": {
        "raw_min": -0.002451587002724409,
        "raw_max": 0.00017944630235433578,
        "raw_mean": -0.0010937257902696729,
        "raw_l2": 0.004039059393107891,
        "conv_min": -0.0013578612124547362,
        "conv_max": 0.0012731720926240087,
        "conv_mean": 1.2935035854921839e-11,
        "conv_l2": 0.002355393022298813
      }
    },
    {
      "rank": 26,
      "layer": "backbone.layer3.12.conv2",
      "channel": 107,
      "score": 8.26590836295239,
      "l2_norm": 0.3926956355571747,
      "kernel_raw": [
        [
          0.003270692192018032,
          0.0029089043382555246,
          0.002538674743846059
        ],
        [
          0.0030480483546853065,
          0.005692069884389639,
          0.0020504400599747896
        ],
        [
          0.002049726899713278,
          0.001669328659772873,
          0.0009620456257835031
        ]
      ],
      "kernel_conv": [
        [
          0.0005829222500324249,
          0.0002211343962699175,
          -0.0001490951981395483
        ],
        [
          0.0003602784126996994,
          0.0030042999424040318,
          -0.0006373298820108175
        ],
        [
          -0.0006380430422723293,
          -0.0010184412822127342,
          -0.001725724316202104
        ]
      ],
      "stats": {
        "raw_min": 0.0009620456257835031,
        "raw_max": 0.005692069884389639,
        "raw_mean": 0.002687769941985607,
        "raw_l2": 0.008911349810659885,
        "conv_min": -0.001725724316202104,
        "conv_max": 0.0030042999424040318,
        "conv_mean": 1.4228539180205502e-10,
        "conv_l2": 0.003794098272919655
      }
    },
    {
      "rank": 27,
      "layer": "backbone.layer3.6.conv2",
      "channel": 89,
      "score": 8.251014431377685,
      "l2_norm": 0.3318701386451721,
      "kernel_raw": [
        [
          -4.72636784252245e-05,
          0.0005639006267301738,
          0.0003857086121570319
        ],
        [
          0.0014081808039918542,
          0.0021610131952911615,
          0.0007352057145908475
        ],
        [
          0.0007740666624158621,
          0.001624549156986177,
          0.0013085948303341866
        ]
      ],
      "kernel_conv": [
        [
          -0.001037703244946897,
          -0.0004265389288775623,
          -0.0006047309143468738
        ],
        [
          0.0004177412483841181,
          0.0011705736396834254,
          -0.0002552338410168886
        ],
        [
          -0.00021637289319187403,
          0.0006341096013784409,
          0.00031815527472645044
        ]
      ],
      "stats": {
        "raw_min": -4.72636784252245e-05,
        "raw_max": 0.0021610131952911615,
        "raw_mean": 0.0009904395556077361,
        "raw_l2": 0.0035515103954821825,
        "conv_min": -0.001037703244946897,
        "conv_max": 0.0011705736396834254,
        "conv_mean": 0.0,
        "conv_l2": 0.001945377211086452
      }
    },
    {
      "rank": 28,
      "layer": "backbone.layer3.5.conv2",
      "channel": 118,
      "score": 8.236700711353834,
      "l2_norm": 0.3981036841869354,
      "kernel_raw": [
        [
          -0.001734849181957543,
          -0.0014835329493507743,
          -0.0017599051352590322
        ],
        [
          -0.0016120582586154342,
          -0.0013673945795744658,
          -0.0020049638114869595
        ],
        [
          -0.0014075518120080233,
          -0.0013334937393665314,
          -0.0017386128893122077
        ]
      ],
      "kernel_conv": [
        [
          -0.000130142318084836,
          0.0001211739145219326,
          -0.00015519827138632536
        ],
        [
          -7.35139474272728e-06,
          0.00023731228429824114,
          -0.00040025694761425257
        ],
        [
          0.00019715505186468363,
          0.0002712131245061755,
          -0.0001339060254395008
        ]
      ],
      "stats": {
        "raw_min": -0.0020049638114869595,
        "raw_max": -0.0013334937393665314,
        "raw_mean": -0.0016047068638727069,
        "raw_l2": 0.00485575944185257,
        "conv_min": -0.00040025694761425257,
        "conv_max": 0.0002712131245061755,
        "conv_mean": -6.467518187669441e-11,
        "conv_l2": 0.0006345399306155741
      }
    },
    {
      "rank": 29,
      "layer": "backbone.layer3.10.conv2",
      "channel": 2,
      "score": 8.170113400080819,
      "l2_norm": 0.37565478682518005,
      "kernel_raw": [
        [
          -0.0003373848448973149,
          -3.8652979128528386e-05,
          -2.26879637921229e-06
        ],
        [
          -0.0002408426662441343,
          -0.0007428753306157887,
          -4.894796802545898e-05
        ],
        [
          -1.5685101971030235e-05,
          -5.458633677335456e-05,
          -0.001190182869322598
        ]
      ],
      "kernel_conv": [
        [
          -4.055962199345231e-05,
          0.0002581722510512918,
          0.0002945564338006079
        ],
        [
          5.598255665972829e-05,
          -0.0004460501077119261,
          0.00024787726579234004
        ],
        [
          0.00028114012093283236,
          0.00024223889340646565,
          -0.0008933576755225658
        ]
      ],
      "stats": {
        "raw_min": -0.001190182869322598,
        "raw_max": -2.26879637921229e-06,
        "raw_mean": -0.0002968252229038626,
        "raw_l2": 0.0014653850812464952,
        "conv_min": -0.0008933576755225658,
        "conv_max": 0.0002945564338006079,
        "conv_mean": 1.2935035854921839e-11,
        "conv_l2": 0.0011637898860499263
      }
    },
    {
      "rank": 30,
      "layer": "backbone.layer3.1.conv2",
      "channel": 115,
      "score": 7.916094100400457,
      "l2_norm": 0.38004839420318604,
      "kernel_raw": [
        [
          -0.0024178342428058386,
          -0.006266414653509855,
          -0.0018159255851060152
        ],
        [
          0.00359536986798048,
          0.0016503960359841585,
          0.004567719995975494
        ],
        [
          -0.0015781642869114876,
          -0.007265675812959671,
          -0.002052353462204337
        ]
      ],
      "kernel_conv": [
        [
          -0.0011308473767712712,
          -0.00497942790389061,
          -0.0005289387190714478
        ],
        [
          0.004882356617599726,
          0.0029373830184340477,
          0.00585470674559474
        ],
        [
          -0.0002911774208769202,
          -0.0059786890633404255,
          -0.0007653665961697698
        ]
      ],
      "stats": {
        "raw_min": -0.007265675812959671,
        "raw_max": 0.004567719995975494,
        "raw_mean": -0.0012869868660345674,
        "raw_l2": 0.012017437256872654,
        "conv_min": -0.0059786890633404255,
        "conv_max": 0.00585470674559474,
        "conv_mean": -1.1641532182693481e-10,
        "conv_l2": 0.011380326002836227
      }
    }
  ]
  
